/*!
 * The following copyright notice may not be removed under any circumstances.
 * 
 * Copyright:
 * © 2007 Microsoft Corporation. All Rights Reserved.
 * 
 * Trademark:
 * Segoe is either a registered trademark or a trademark of Microsoft Corporation
 * in the United States and/or other countries.
 * 
 * Manufacturer:
 * Microsoft Corporation
 * 
 * Vendor URL:
 * http://www.microsoft.com/typography/fonts/
 * 
 * License information:
 * http://www.microsoft.com/typography/fonts/
 */
Cufon.registerFont({"w":1104,"face":{"font-family":"segoe","font-weight":400,"font-stretch":"normal","units-per-em":"2048","panose-1":"2 11 5 2 4 2 4 2 2 3","ascent":"1638","descent":"-410","x-height":"24","bbox":"-198 -1616 1888 482","underline-thickness":"119","underline-position":"-119","unicode-range":"U+0020-U+007E"},"glyphs":{" ":{"w":561},"!":{"d":"375,-1434r-19,1030r-135,0r-18,-1030r172,0xm402,-92v0,59,-52,110,-111,110v-60,0,-111,-50,-111,-110v0,-60,51,-111,111,-111v59,0,111,52,111,111","w":582},"\"":{"d":"323,-1434r-30,447r-115,0r-30,-447r175,0xm655,-1434r-30,447r-115,0r-30,-447r175,0","w":803},"#":{"d":"1166,-1032r-23,106r-261,0r-63,300r281,0r-27,106r-275,0r-88,397r-126,0r86,-397r-250,0r-84,397r-125,0r84,-397r-262,0r20,-106r265,0r61,-300r-277,0r21,-106r277,0r84,-402r126,0r-84,402r252,0r86,-402r123,0r-84,402r263,0xm758,-926r-252,0r-66,300r254,0","w":1210},"$":{"d":"977,-370v0,210,-160,333,-361,362r0,217r-104,0r0,-209v-142,0,-257,-29,-346,-86r0,-174v66,62,224,120,346,120r0,-512v-147,-71,-242,-136,-285,-196v-43,-60,-65,-130,-65,-211v-2,-201,163,-356,350,-377r0,-180r104,0r0,176v131,4,221,23,271,56r0,170v-68,-53,-158,-82,-271,-86r0,528v139,66,233,130,284,192v51,62,77,131,77,210xm512,-1294v-103,19,-182,98,-182,214v0,147,69,185,182,252r0,-466xm616,-600r0,452v129,-28,193,-97,193,-208v0,-92,-64,-173,-193,-244"},"%":{"d":"746,-1094v0,218,-133,379,-342,379v-201,0,-324,-151,-324,-358v0,-226,127,-383,344,-383v211,0,322,143,322,362xm614,-1090v0,-146,-63,-256,-196,-256v-137,0,-205,115,-205,264v0,147,66,256,201,256v137,0,200,-115,200,-264xm1364,-1434r-920,1444r-143,0r919,-1444r144,0xm1600,-356v0,217,-133,378,-342,378v-201,0,-324,-152,-324,-358v0,-225,129,-385,344,-385v210,0,322,146,322,365xm1468,-354v0,-147,-63,-254,-196,-254v-139,0,-205,114,-205,264v0,145,67,254,201,254v136,0,200,-116,200,-264","w":1676},"&":{"d":"1061,-377v59,-80,115,-250,115,-381r151,0v-1,181,-59,343,-172,486r270,272r-229,0r-154,-158v-129,122,-286,183,-469,183v-257,0,-454,-146,-454,-387v0,-169,109,-309,327,-420v-103,-132,-155,-245,-155,-338v0,-199,170,-338,377,-338v192,0,341,118,342,299v0,91,-27,168,-80,230v-48,56,-129,112,-244,169xm672,-1327v-128,0,-218,82,-217,207v0,73,47,161,141,266v169,-81,254,-178,254,-291v0,-100,-79,-182,-178,-182xm287,-369v-6,154,129,254,286,254v147,0,272,-47,375,-141r-409,-426v-145,77,-245,137,-252,313","w":1446},"'":{"d":"323,-1434r-30,447r-115,0r-30,-447r175,0","w":471},"(":{"d":"596,326r-146,0v-207,-236,-310,-527,-310,-873v0,-347,103,-643,310,-887r148,0v-416,481,-420,1281,-2,1760","w":618},")":{"d":"170,326r-146,0v418,-480,414,-1279,-2,-1760r148,0v208,244,312,540,312,887v0,346,-104,637,-312,873","w":618},"*":{"d":"780,-1104r-274,56r190,243r-110,76r-156,-265r-158,265r-110,-76r190,-243r-276,-56r45,-125r262,99r-23,-304r138,0r-23,304r263,-99","w":854},"+":{"d":"1172,-530r-404,0r0,403r-133,0r0,-403r-403,0r0,-134r403,0r0,-403r133,0r0,403r404,0r0,134","w":1401},",":{"d":"316,-228r-160,492r-117,0r117,-492r160,0","w":444},"-":{"d":"690,-506r-546,0r0,-129r546,0r0,129","w":819},".":{"d":"336,-90v0,60,-52,112,-113,112v-60,0,-111,-52,-111,-112v0,-60,51,-113,111,-113v61,0,113,53,113,113","w":444},"\/":{"d":"813,-1434r-688,1672r-153,0r686,-1672r155,0","w":798},"0":{"d":"1020,-723v0,326,-77,582,-278,699v-111,65,-284,67,-396,2v-190,-111,-260,-358,-260,-666v0,-334,69,-601,276,-720v60,-34,129,-50,207,-50v301,0,451,245,451,735xm852,-707v0,-408,-97,-612,-291,-612v-205,0,-307,208,-307,623v0,387,100,581,301,581v198,0,297,-197,297,-592"},"1":{"d":"83,-1235v163,-48,318,-135,434,-231r62,0r0,1466r-164,0r0,-1239v-83,73,-208,136,-332,170r0,-166","w":798},"2":{"d":"165,-1320v91,-86,191,-138,363,-138v191,0,320,84,380,221v63,144,19,348,-52,446v-132,181,-363,308,-508,477v-44,51,-65,88,-68,167r714,0r0,147r-885,0v-18,-250,83,-366,213,-488v142,-133,371,-250,436,-460v10,-34,14,-71,14,-110v-3,-169,-97,-261,-264,-261v-161,0,-259,88,-343,175r0,-176"},"3":{"d":"455,-115v194,0,330,-87,330,-276v0,-187,-133,-281,-400,-281r-119,0r0,-139r113,0v236,0,354,-88,354,-264v0,-163,-90,-244,-270,-244v-101,0,-196,34,-285,102r0,-159v161,-106,478,-113,614,13v61,57,108,136,109,247v0,189,-95,310,-286,364r0,4v194,27,338,130,338,342v0,219,-129,341,-299,400v-165,56,-415,34,-531,-47r0,-176v97,76,207,114,332,114"},"4":{"d":"816,-1434v-149,340,-369,640,-581,920r479,0r0,-372r162,0r0,372r214,0r0,133r-214,0r0,381r-162,0r0,-381r-664,0r0,-125r158,-205v160,-217,321,-463,432,-723r176,0","w":1113},"5":{"d":"353,-865v357,-33,616,89,616,427v0,231,-124,365,-299,430v-143,53,-409,39,-506,-27r0,-174v97,63,197,94,299,94v206,0,338,-110,338,-313v0,-222,-179,-316,-428,-298r-182,11r49,-719r663,0r0,148r-521,0"},"6":{"d":"111,-504v0,-457,221,-726,498,-931r230,0v-252,170,-452,346,-538,664r8,0v68,-78,155,-128,302,-126v204,2,324,109,381,262v41,110,39,264,-4,373v-64,162,-189,287,-403,287v-231,0,-371,-121,-437,-298v-25,-66,-37,-143,-37,-231xm578,-115v184,0,276,-132,276,-319v0,-193,-86,-324,-275,-324v-191,0,-288,123,-288,318v0,150,71,251,175,301v35,16,72,24,112,24"},"7":{"d":"1011,-1339r-79,142v-31,57,-64,120,-99,191v-35,71,-70,147,-106,228v-101,232,-197,490,-235,778r-176,0v83,-503,295,-907,502,-1286r-719,0r0,-148r912,0r0,95"},"8":{"d":"757,-778v147,62,263,182,263,378v0,210,-117,333,-276,392v-111,41,-265,42,-376,0v-159,-60,-278,-182,-278,-392v0,-196,117,-316,265,-378v-108,-60,-203,-163,-203,-314v0,-180,107,-285,243,-338v97,-37,225,-37,321,0v136,53,242,158,242,338v0,150,-96,254,-201,314xm556,-122v180,0,289,-110,289,-292v0,-136,-72,-224,-170,-268v-113,-50,-266,-8,-325,58v-45,50,-82,119,-82,210v0,184,105,292,288,292xm556,-1320v-182,0,-277,162,-218,336v36,106,175,179,310,126v105,-41,184,-181,128,-317v-34,-83,-107,-145,-220,-145"},"9":{"d":"1006,-928v0,457,-222,723,-498,928r-230,0v251,-171,453,-344,538,-661r-8,0v-68,78,-155,128,-302,126v-204,-2,-325,-109,-382,-262v-41,-110,-39,-264,4,-373v64,-162,190,-287,404,-287v231,0,371,121,437,298v25,66,37,143,37,231xm539,-1317v-184,0,-276,132,-276,319v0,193,85,324,275,324v191,0,288,-123,288,-318v0,-150,-70,-251,-174,-301v-35,-16,-73,-24,-113,-24"},":":{"d":"336,-936v0,60,-52,112,-113,112v-60,0,-111,-52,-111,-112v0,-60,51,-110,111,-110v61,0,113,50,113,110xm336,-90v0,60,-52,112,-113,112v-60,0,-111,-52,-111,-112v0,-60,51,-113,111,-113v61,0,113,53,113,113","w":444},";":{"d":"338,-936v0,60,-52,112,-112,112v-61,0,-112,-52,-112,-112v0,-60,51,-110,112,-110v60,0,112,50,112,110xm316,-228r-160,492r-117,0r117,-492r160,0","w":444},"<":{"d":"1132,-127r-860,-432r0,-59r860,-482r0,150r-642,356r0,4r642,314r0,149","w":1401},"=":{"d":"1172,-744r-940,0r0,-132r940,0r0,132xm1172,-318r-940,0r0,-132r940,0r0,132","w":1401},">":{"d":"1132,-559r-860,432r0,-149r644,-312r0,-6r-644,-356r0,-150r860,482r0,59","w":1401},"?":{"d":"489,-644v-43,70,-22,183,7,246r-161,0v-24,-73,-33,-194,3,-266v72,-142,218,-219,292,-356v17,-31,26,-65,26,-102v0,-134,-98,-197,-232,-197v-113,0,-210,44,-293,133r0,-176v206,-151,567,-118,657,82v34,75,36,192,3,269v-66,154,-219,232,-302,367xm536,-92v0,59,-54,110,-111,110v-57,0,-111,-51,-111,-110v0,-61,53,-111,111,-111v58,0,111,51,111,111","w":918},"@":{"d":"1788,-725v0,280,-156,543,-404,543v-146,0,-219,-79,-220,-238r-5,0v-49,159,-144,238,-287,238v-194,-1,-304,-164,-304,-373v0,-277,156,-525,419,-525v94,0,182,57,201,130r4,0v1,-19,5,-57,10,-115r125,0v-31,367,-47,554,-47,561v0,138,40,207,119,207v72,0,131,-39,179,-117v48,-78,72,-179,72,-303v1,-375,-264,-623,-656,-623v-395,0,-685,328,-685,728v0,406,272,684,682,684v165,0,305,-27,422,-82r0,124v-115,49,-259,74,-432,74v-474,0,-809,-324,-809,-794v0,-477,354,-848,830,-848v437,0,786,296,786,729xm708,-553v0,141,62,254,189,254v83,0,149,-41,197,-123v48,-82,72,-192,72,-328v0,-143,-60,-214,-181,-214v-182,0,-277,208,-277,411","w":1956},"A":{"d":"1298,0r-186,0r-152,-402r-608,0r-143,402r-187,0r550,-1434r174,0xm905,-553r-225,-611v-7,-20,-15,-52,-22,-96r-4,0v-7,41,-14,73,-23,96r-223,611r497,0","w":1321},"B":{"d":"1071,-412v0,249,-211,412,-465,412r-418,0r0,-1434r408,0v227,-5,404,119,404,328v0,175,-106,296,-248,340r0,4v185,20,319,148,319,350xm528,-819v174,2,296,-86,296,-254v0,-139,-92,-209,-275,-209r-193,0r0,463r172,0xm584,-152v184,2,310,-90,311,-262v0,-169,-115,-254,-346,-254r-193,0r0,516r228,0","w":1174},"C":{"d":"270,-700v0,332,201,575,520,573v144,0,269,-32,374,-96r0,163v-106,56,-238,84,-396,84v-409,0,-674,-300,-674,-714v0,-440,305,-768,732,-768v136,0,249,20,338,59r0,179v-103,-57,-216,-86,-340,-86v-337,-3,-554,256,-554,606","w":1268},"D":{"d":"1342,-735v0,446,-319,743,-774,735r-380,0r0,-1434r396,0v505,0,758,233,758,699xm570,-152v371,2,596,-210,596,-579v0,-367,-195,-551,-586,-551r-224,0r0,1130r214,0","w":1436},"E":{"d":"948,0r-760,0r0,-1434r728,0r0,152r-560,0r0,477r518,0r0,151r-518,0r0,502r592,0r0,152","w":1036},"F":{"d":"916,-1282r-560,0r0,496r518,0r0,151r-518,0r0,635r-168,0r0,-1434r728,0r0,152","w":1000},"G":{"d":"270,-710v0,347,196,584,531,583v112,0,209,-22,291,-67r0,-402r-314,0r0,-152r482,0r0,650v-144,81,-304,122,-480,122v-411,0,-686,-302,-686,-722v0,-431,318,-760,744,-760v156,0,287,25,393,76r0,186v-116,-73,-253,-110,-412,-110v-325,0,-549,261,-549,596","w":1405},"H":{"d":"1266,0r-168,0r0,-654r-742,0r0,654r-168,0r0,-1434r168,0r0,629r742,0r0,-629r168,0r0,1434","w":1454},"I":{"d":"356,-1434r0,1434r-168,0r0,-1434r168,0","w":545},"J":{"d":"555,-514v5,302,-128,538,-397,538v-56,0,-102,-8,-138,-24r0,-166v36,26,83,39,140,39v151,0,227,-128,227,-385r0,-922r168,0r0,920","w":731},"K":{"d":"1186,0r-234,0r-554,-656v-21,-25,-33,-41,-38,-50r-4,0r0,706r-168,0r0,-1434r168,0r0,674r4,0v9,-15,22,-31,38,-49r536,-625r209,0r-615,688","w":1188},"L":{"d":"932,0r-744,0r0,-1434r168,0r0,1282r576,0r0,152","w":964},"M":{"d":"1650,0r-167,0r0,-962v0,-76,5,-169,14,-279r-4,0v-16,65,-30,111,-43,139r-490,1102r-82,0r-489,-1094v-14,-32,-28,-81,-43,-147r-4,0v5,57,8,151,8,281r0,960r-162,0r0,-1434r222,0r440,1000v34,77,56,134,66,172r6,0v29,-79,52,-137,69,-176r449,-996r210,0r0,1434","w":1839},"N":{"d":"1344,0r-206,0r-738,-1143v-19,-29,-34,-59,-46,-90r-6,0v5,31,8,96,8,197r0,1036r-168,0r0,-1434r218,0r718,1125v30,47,49,79,58,96r4,0v-7,-41,-10,-112,-10,-211r0,-1010r168,0r0,1434","w":1532},"O":{"d":"1450,-735v0,445,-256,759,-684,759v-409,0,-672,-310,-672,-724v0,-445,261,-758,696,-758v401,0,660,311,660,723xm1274,-712v0,-352,-167,-592,-496,-594v-313,-2,-508,262,-508,591v0,328,187,589,496,588v329,0,508,-238,508,-585","w":1544},"P":{"d":"1065,-1006v0,282,-222,471,-520,464r-189,0r0,542r-168,0r0,-1434r394,0v293,-3,483,146,483,428xm532,-694v218,2,357,-99,357,-304v0,-189,-112,-284,-336,-284r-197,0r0,588r176,0","w":1147},"Q":{"d":"1450,-735v0,287,-102,512,-280,639r403,289r-305,0r-270,-202v-71,22,-148,33,-232,33v-407,0,-672,-309,-672,-724v0,-446,262,-758,696,-758v400,0,660,312,660,723xm1274,-712v0,-353,-167,-591,-496,-594v-313,-2,-508,262,-508,591v0,327,187,589,496,588v329,-1,508,-238,508,-585","w":1544},"R":{"d":"1052,-1052v0,224,-136,335,-318,386r0,4v105,44,156,139,213,231r269,431r-200,0r-240,-402v-68,-105,-119,-205,-282,-208r-138,0r0,610r-168,0r0,-1434r428,0v262,5,436,121,436,382xm876,-1038v0,-163,-115,-244,-290,-244r-230,0r0,520r228,0v178,-5,292,-98,292,-276","w":1225},"S":{"d":"836,-63v-170,118,-538,108,-715,5r0,-198v90,75,228,126,385,129v184,3,308,-60,308,-223v0,-142,-102,-196,-202,-248r-133,-68v-167,-92,-356,-163,-356,-409v0,-211,144,-312,315,-360v147,-42,401,-24,492,28r0,189v-167,-123,-631,-151,-631,128v0,134,88,180,179,232v38,22,82,43,132,68v141,71,280,148,350,286v46,91,36,240,-12,322v-28,49,-66,87,-112,119","w":1088},"T":{"d":"1036,-1282r-414,0r0,1282r-168,0r0,-1282r-413,0r0,-152r995,0r0,152","w":1073},"U":{"d":"1237,-580v0,403,-182,604,-545,604v-348,0,-522,-194,-522,-581r0,-877r168,0r0,866v0,294,124,441,372,441v239,0,359,-142,359,-426r0,-881r168,0r0,854","w":1407},"V":{"d":"1254,-1434r-531,1434r-185,0r-520,-1434r187,0r397,1137v13,37,22,79,29,127r4,0v5,-40,16,-83,33,-129r405,-1135r181,0","w":1272},"W":{"d":"1888,-1434r-405,1434r-197,0r-295,-1048v-13,-45,-20,-93,-23,-146r-4,0v-4,49,-13,97,-26,144r-297,1050r-195,0r-420,-1434r185,0r305,1100v13,46,21,94,24,144r5,0v3,-35,14,-83,31,-144r317,-1100r161,0r304,1108v11,38,19,83,24,134r4,0v3,-35,12,-81,27,-138r293,-1104r182,0","w":1913},"X":{"d":"1178,0r-205,0r-330,-549v-10,-17,-21,-40,-33,-71r-4,0v-7,15,-15,41,-34,71r-340,549r-206,0r480,-721r-442,-713r206,0r293,504v19,33,36,67,51,100r4,0v114,-216,240,-398,361,-604r193,0r-451,711","w":1208},"Y":{"d":"1120,-1434r-473,904r0,530r-168,0r0,-526r-461,-908r191,0r321,648v4,8,16,37,35,88r3,0v7,-23,19,-52,38,-88r336,-648r178,0","w":1132},"Z":{"d":"1124,-1394r-840,1242r820,0r0,152r-1071,0r0,-47r833,-1235r-766,0r0,-152r1024,0r0,40","w":1168},"[":{"d":"568,326r-368,0r0,-1760r368,0r0,119r-222,0r0,1522r222,0r0,119","w":618},"\\":{"d":"798,240r-151,0r-673,-1674r155,0","w":776},"]":{"d":"420,326r-367,0r0,-119r221,0r0,-1522r-221,0r0,-119r367,0r0,1760","w":618},"^":{"d":"1174,-624r-150,0r-332,-619r-6,0r-309,619r-147,0r422,-834r65,0","w":1401},"_":{"d":"850,297r-850,0r0,-119r850,0r0,119","w":850},"`":{"d":"471,-1218r-127,0r-262,-328r168,0","w":549},"a":{"d":"416,24v-194,0,-326,-111,-326,-296v0,-191,113,-303,338,-334r307,-43v0,-174,-70,-261,-211,-261v-123,0,-235,42,-334,126r0,-168v101,-64,217,-96,348,-96v241,0,361,127,361,382r0,666r-164,0r0,-160r-4,0v-71,123,-176,184,-315,184xm454,-114v163,0,285,-135,281,-302r0,-102v-138,24,-329,27,-419,90v-39,27,-58,75,-58,144v0,104,86,170,196,170","w":1042},"b":{"d":"1108,-542v0,319,-163,567,-467,566v-135,0,-238,-57,-307,-172r-4,0r0,148r-164,0r0,-1516r164,0r0,672r4,0v81,-136,199,-204,354,-204v275,-1,420,218,420,506xm647,-910v-191,-3,-320,157,-317,349r0,143v-3,165,126,307,292,304v219,-4,318,-189,318,-431v0,-209,-99,-362,-293,-365","w":1204},"c":{"d":"264,-502v0,228,129,389,348,388v89,0,173,-30,252,-89r0,156v-79,47,-172,71,-280,71v-291,0,-488,-218,-488,-512v0,-328,209,-560,532,-560v90,0,169,17,238,50r0,168v-76,-53,-157,-80,-244,-80v-216,-2,-358,180,-358,408","w":946},"d":{"d":"96,-488v0,-315,171,-561,469,-560v141,0,243,55,307,166r4,0r0,-634r164,0r0,1516r-164,0r0,-174r-4,0v-76,132,-193,198,-352,198v-272,0,-424,-221,-424,-512xm568,-114v186,2,312,-159,308,-349r0,-151v3,-162,-126,-299,-290,-296v-216,4,-322,179,-322,414v0,216,105,380,304,382","w":1206},"e":{"d":"568,-1048v279,0,424,200,421,491r0,86r-723,0v3,217,121,357,334,357v115,0,221,-38,318,-114r0,154v-90,65,-209,98,-357,98v-302,0,-465,-214,-465,-532v0,-296,194,-540,472,-540xm821,-610v1,-177,-87,-300,-256,-300v-168,0,-278,140,-297,300r553,0","w":1071},"f":{"d":"228,-1190v-10,-244,203,-404,444,-330r0,148v-32,-18,-68,-27,-109,-27v-115,0,-172,72,-172,217r0,158r240,0r0,140r-240,0r0,884r-163,0r0,-884r-175,0r0,-140r175,0r0,-166","w":641},"g":{"d":"96,-479v0,-324,163,-569,469,-569v138,0,240,55,307,166r4,0r0,-142r164,0r0,942v0,376,-180,564,-540,564v-127,0,-237,-24,-332,-72r0,-164v115,64,225,96,330,96v252,0,378,-134,378,-402r0,-112r-4,0v-78,131,-195,196,-352,196v-267,1,-424,-219,-424,-503xm565,-114v187,2,315,-156,311,-349r0,-151v4,-159,-128,-299,-288,-296v-221,4,-324,180,-324,420v0,209,107,374,301,376","w":1206},"h":{"d":"614,-910v-167,0,-284,152,-284,330r0,580r-164,0r0,-1516r164,0r0,662r4,0v79,-129,191,-194,336,-194v231,0,346,139,346,417r0,631r-164,0r0,-590v0,-213,-79,-320,-238,-320","w":1159},"i":{"d":"358,-1390v0,58,-50,106,-108,106v-58,0,-106,-47,-106,-106v0,-59,48,-107,106,-107v59,0,108,47,108,107xm330,0r-164,0r0,-1024r164,0r0,1024","w":496},"j":{"d":"330,-43v2,304,-115,520,-392,525v-47,0,-92,-11,-136,-32r0,-153v209,119,364,-3,364,-313r0,-1008r164,0r0,981xm358,-1390v0,58,-50,106,-108,106v-58,0,-106,-47,-106,-106v0,-59,48,-107,106,-107v59,0,108,47,108,107","w":496},"k":{"d":"1016,0r-230,0r-452,-492r-4,0r0,492r-164,0r0,-1516r164,0r0,961r4,0r430,-469r215,0r-475,494","w":1018},"l":{"d":"330,0r-164,0r0,-1516r164,0r0,1516","w":496},"m":{"d":"652,-1048v146,-1,256,94,290,212v76,-141,189,-212,340,-212v225,0,338,139,338,417r0,631r-164,0r0,-588v-3,-205,-42,-318,-229,-322v-148,-3,-252,166,-252,326r0,584r-164,0r0,-608v0,-201,-78,-302,-233,-302v-156,0,-248,154,-248,326r0,584r-164,0r0,-1024r164,0r0,162r4,0v73,-124,179,-186,318,-186","w":1764},"n":{"d":"670,-1048v239,1,346,168,346,422r0,626r-164,0r0,-584v0,-217,-79,-326,-238,-326v-168,0,-284,150,-284,326r0,584r-164,0r0,-1024r164,0r0,170r4,0v77,-129,189,-194,336,-194","w":1159},"o":{"d":"1104,-516v0,317,-198,540,-510,540v-303,0,-498,-217,-498,-524v0,-333,198,-548,522,-548v312,0,486,211,486,532xm936,-510v0,-239,-105,-400,-330,-400v-222,0,-342,169,-342,404v0,228,125,392,342,392v224,-1,330,-159,330,-396","w":1200},"p":{"d":"1108,-542v0,319,-163,567,-467,566v-133,0,-235,-57,-307,-172r-4,0r0,619r-164,0r0,-1495r164,0r0,180r4,0v81,-136,199,-204,354,-204v276,-1,420,218,420,506xm647,-910v-191,-3,-320,157,-317,349r0,143v-3,165,126,307,292,304v219,-4,318,-189,318,-431v0,-209,-99,-362,-293,-365","w":1204},"q":{"d":"96,-488v0,-317,171,-561,472,-560v140,0,241,55,304,166r4,0r0,-142r164,0r0,1495r-164,0r0,-647r-4,0v-71,133,-188,200,-350,200v-272,0,-426,-221,-426,-512xm561,-114v192,4,318,-154,315,-347r0,-149v3,-164,-126,-303,-292,-300v-216,4,-320,179,-320,418v0,213,106,375,297,378","w":1206},"r":{"d":"334,-813v40,-150,184,-270,366,-215r0,170v-29,-22,-70,-33,-124,-33v-163,0,-246,176,-246,369r0,522r-164,0r0,-1024r164,0r0,211r4,0","w":712},"s":{"d":"476,-910v-110,0,-202,40,-202,144v0,131,123,149,216,190v143,63,293,108,293,302v0,217,-185,298,-405,298v-105,0,-197,-20,-274,-61r0,-176v89,66,188,99,295,99v144,0,216,-48,216,-144v0,-133,-136,-153,-234,-196v-139,-61,-275,-108,-275,-298v0,-161,115,-240,246,-277v127,-36,277,-20,384,27r0,166v-75,-49,-162,-74,-260,-74","w":869},"t":{"d":"383,-307v1,128,32,188,151,191v41,0,77,-11,107,-34r0,140v-39,21,-90,32,-153,32v-179,0,-269,-100,-269,-300r0,-606r-176,0r0,-140r176,0r0,-250r164,-53r0,303r258,0r0,140r-258,0r0,577","w":694},"u":{"d":"555,-114v167,0,275,-143,275,-320r0,-590r164,0r0,1024r-164,0r0,-162r-4,0v-68,124,-173,186,-316,186v-244,0,-366,-145,-366,-436r0,-612r163,0r0,586v0,216,83,324,248,324","w":1159},"v":{"d":"971,-1024r-408,1024r-161,0r-388,-1024r180,0r260,744v19,55,31,102,36,143r4,0v7,-51,17,-98,32,-139r272,-748r173,0","w":981},"w":{"d":"1456,-1024r-307,1024r-170,0r-211,-733v-8,-28,-13,-60,-16,-95r-4,0v-2,24,-9,55,-21,93r-229,735r-164,0r-310,-1024r172,0r212,770v7,23,11,54,14,92r8,0v2,-29,8,-61,18,-94r236,-768r150,0r212,772v7,25,12,55,15,92r8,0v1,-26,7,-57,17,-92r208,-772r162,0","w":1480},"x":{"d":"914,-1024r-344,518r338,506r-191,0r-246,-410v-14,3,-21,29,-51,78r-205,332r-189,0r349,-502r-334,-522r191,0r241,430r4,0r256,-430r181,0","w":940},"y":{"d":"981,-1024r-471,1188v-84,212,-202,318,-354,318v-43,0,-78,-4,-107,-13r0,-147v138,47,226,2,283,-130r82,-194r-400,-1022r182,0r277,788v3,10,10,36,21,78r6,0v3,-16,8,-42,20,-76r291,-790r170,0","w":991},"z":{"d":"880,-977r-606,837r600,0r0,140r-841,0r0,-51r606,-833r-549,0r0,-140r790,0r0,47","w":926},"{":{"d":"396,-8v2,139,31,202,159,208r0,126v-205,-3,-307,-106,-307,-310r0,-300v0,-135,-52,-205,-156,-212r0,-116v104,-7,156,-79,156,-216r0,-292v0,-207,102,-311,307,-314r0,128v-106,3,-159,69,-159,198r0,293v0,140,-50,226,-150,258r0,4v100,30,150,115,150,256r0,289","w":618},"|":{"d":"320,482r-148,0r0,-2048r148,0r0,2048","w":490},"}":{"d":"66,200v126,-5,160,-70,160,-208r0,-289v0,-141,50,-226,149,-256r0,-4v-99,-32,-149,-118,-149,-258r0,-293v0,-129,-53,-195,-160,-198r0,-128v204,3,306,107,306,314r0,292v0,137,52,209,156,216r0,116v-104,7,-156,77,-156,212r0,300v0,204,-102,307,-306,310r0,-126","w":618},"~":{"d":"922,-572v89,-1,136,-83,137,-178r135,0v-7,183,-101,309,-280,310v-73,0,-161,-36,-265,-109v-65,-45,-118,-67,-159,-67v-93,0,-142,59,-146,176r-135,0v4,-179,104,-310,281,-310v71,0,149,29,235,88v88,60,154,90,197,90","w":1401},"\u00a0":{"w":561}}});
/*!
 * The following copyright notice may not be removed under any circumstances.
 * 
 * Copyright:
 * © 2008 Microsoft Corporation. All Rights Reserved.
 * 
 * Trademark:
 * Segoe is either a registered trademark or a trademark of Microsoft Corporation
 * in the United States and/or other countries.
 * 
 * Manufacturer:
 * Microsoft Corporation
 * 
 * Vendor URL:
 * http://www.microsoft.com/typography/fonts/
 * 
 * License information:
 * http://www.microsoft.com/typography/fonts/
 */
Cufon.registerFont({"w":1178,"face":{"font-family":"segoe","font-weight":700,"font-stretch":"normal","units-per-em":"2048","panose-1":"2 11 8 2 4 2 4 2 2 3","ascent":"1638","descent":"-410","x-height":"25","bbox":"-133 -1620 2040 481.014","underline-thickness":"119","underline-position":"-119","unicode-range":"U+0020-U+007E"},"glyphs":{" ":{"w":565},"!":{"d":"500,-1434r-39,988r-256,0r-37,-988r332,0xm518,-143v0,98,-80,166,-182,166v-100,0,-184,-72,-184,-166v0,-97,84,-164,184,-164v101,0,182,67,182,164","w":670},"\"":{"d":"834,-1452r-31,444r-201,0r-31,-444r263,0xm438,-1452r-30,442r-203,0r-29,-442r262,0","w":1010},"#":{"d":"1176,-1069r-39,180r-185,0r-55,248r207,0r-45,180r-199,0r-78,346r-200,0r73,-346r-229,0r-74,346r-200,0r71,-346r-186,0r37,-180r188,0r53,-248r-202,0r34,-180r205,0r74,-356r205,0r-74,356r229,0r76,-356r203,0r-74,356r185,0xm750,-889r-232,0r-55,248r231,0","w":1213},"$":{"d":"1083,-399v0,243,-171,367,-409,391r0,217r-146,0r0,-211v-135,-1,-261,-31,-378,-92r0,-277v67,59,261,127,378,133r0,-364v-156,-58,-263,-120,-320,-188v-57,-68,-85,-151,-85,-248v1,-224,184,-380,405,-396r0,-186r146,0r0,182v141,7,246,29,315,68r0,270v-93,-57,-198,-91,-315,-104r0,379v146,53,251,113,314,181v63,68,95,149,95,245xm528,-883r0,-317v-93,17,-139,65,-139,145v0,69,46,126,139,172xm674,-545r0,303v95,-15,143,-62,143,-143v0,-65,-48,-119,-143,-160"},"%":{"d":"793,-1092v0,228,-141,385,-363,385v-206,0,-340,-147,-340,-358v0,-230,141,-389,365,-389v216,0,338,140,338,362xm449,-1278v-97,0,-146,68,-146,203v0,128,46,192,139,192v95,0,142,-67,142,-200v0,-130,-45,-195,-135,-195xm1477,-1434r-934,1434r-244,0r932,-1434r246,0xm1686,-367v0,228,-141,387,-363,387v-206,0,-340,-147,-340,-358v0,-230,141,-389,365,-389v217,0,338,138,338,360xm1477,-356v0,-108,-44,-195,-138,-195v-97,0,-145,68,-145,203v0,128,47,192,141,192v95,0,142,-67,142,-200","w":1776},"&":{"d":"686,-1458v217,0,391,116,391,315v0,83,-23,153,-69,211v-46,58,-123,113,-230,166r271,293v50,-82,75,-181,75,-297r256,0v0,189,-59,347,-176,475r279,297r-361,0r-108,-121v-93,79,-275,144,-441,144v-279,0,-489,-136,-489,-396v0,-159,109,-296,328,-411v-97,-116,-146,-225,-146,-326v-1,-214,191,-350,420,-350xm686,-1257v-90,0,-157,56,-156,143v0,50,40,120,121,209v112,-62,168,-134,168,-217v0,-71,-63,-135,-133,-135xm381,-399v0,122,100,206,223,206v104,0,191,-29,262,-88r-323,-354v-108,59,-162,137,-162,236","w":1485},"'":{"d":"430,-1452r-31,442r-200,0r-29,-442r260,0","w":600},"(":{"d":"739,326r-258,0v-215,-237,-323,-529,-323,-875v0,-334,108,-629,323,-885r256,0v-402,518,-407,1250,2,1760","w":756},")":{"d":"274,326r-256,0v410,-510,406,-1242,0,-1760r258,0v216,257,324,552,324,885v0,343,-109,635,-326,875","w":756},"*":{"d":"864,-1053r-274,37r196,211r-182,125r-137,-254r-137,254r-183,-125r197,-211r-274,-37r71,-202r252,108r-43,-287r234,0r-43,287r250,-108","w":932},"+":{"d":"1212,-485r-385,0r0,385r-202,0r0,-385r-387,0r0,-203r387,0r0,-387r202,0r0,387r385,0r0,203","w":1448},",":{"d":"432,-252r-147,506r-246,0r102,-506r291,0","w":555},"-":{"d":"690,-436r-547,0r0,-221r547,0r0,221","w":828},".":{"d":"463,-141v0,100,-84,166,-189,166v-98,0,-182,-71,-182,-166v0,-98,87,-164,187,-164v102,0,184,67,184,164","w":555},"\/":{"d":"932,-1434r-699,1672r-282,0r696,-1672r285,0","w":908},"0":{"d":"581,25v-341,0,-512,-240,-512,-719v0,-249,47,-438,139,-568v92,-130,226,-196,401,-196v333,0,500,244,500,731v0,243,-46,429,-137,558v-91,129,-221,194,-391,194xm595,-1217v-137,0,-205,172,-205,515v0,323,67,485,201,485v131,0,196,-167,196,-500v0,-333,-64,-500,-192,-500"},"1":{"d":"80,-1251v162,-47,311,-126,429,-215r191,0r0,1466r-315,0r0,-1110v-76,63,-183,108,-305,125r0,-266","w":889},"2":{"d":"574,-1458v281,0,465,131,465,407v0,296,-205,411,-373,550r-82,63v-62,50,-131,95,-155,176r608,0r0,262r-954,0v-2,-118,1,-221,38,-306v94,-218,302,-329,467,-476v65,-59,129,-123,129,-238v0,-129,-75,-187,-211,-186v-123,0,-241,49,-354,147r0,-278v125,-81,265,-121,422,-121"},"3":{"d":"1031,-410v0,289,-239,435,-553,435v-148,0,-268,-24,-361,-72r0,-275v96,70,208,105,336,105v147,0,256,-62,256,-197v0,-147,-146,-201,-313,-200r-133,0r0,-242r123,0v187,0,280,-62,280,-186v0,-117,-72,-175,-215,-175v-96,0,-189,31,-280,93r0,-258v101,-51,218,-76,352,-76v262,0,465,122,465,356v0,187,-95,305,-285,352r0,5v185,19,328,144,328,335"},"4":{"d":"44,-529v203,-263,393,-581,535,-905r306,0v-146,330,-342,638,-548,905r332,-1r0,-313r288,0r0,313r182,0r0,235r-182,0r0,295r-288,0r0,-295r-625,0r0,-234"},"5":{"d":"1043,-467v0,301,-235,492,-553,492v-138,0,-254,-21,-348,-62r0,-270v98,60,202,90,313,90v154,0,265,-77,266,-221v0,-142,-100,-213,-301,-213v-74,0,-159,6,-256,17r54,-800r759,0r0,258r-518,0r-20,287v51,-4,96,-6,133,-6v281,-4,471,159,471,428"},"6":{"d":"417,-792v62,-75,149,-130,287,-130v197,0,309,114,364,266v41,113,40,278,-2,390v-67,181,-222,290,-468,290v-254,0,-408,-128,-474,-322v-87,-255,-3,-575,100,-750v90,-153,210,-287,354,-386r376,0v-244,162,-461,330,-542,642r5,0xm604,-217v128,0,182,-102,185,-233v3,-136,-59,-238,-185,-238v-133,0,-193,97,-193,233v0,134,64,238,193,238"},"7":{"d":"1098,-1252v-212,385,-398,740,-472,1252r-330,0v79,-467,260,-837,470,-1176r-668,0r0,-258r1000,0r0,182"},"8":{"d":"814,-758v159,58,284,164,284,369v0,212,-134,326,-302,382v-196,65,-459,15,-572,-83v-78,-68,-144,-161,-144,-296v0,-203,122,-308,281,-365v-124,-61,-229,-163,-229,-326v0,-192,125,-300,276,-353v180,-62,417,-11,518,80v70,63,129,147,129,269v0,162,-115,263,-241,323xm590,-625v-130,0,-211,82,-211,212v0,134,78,210,211,210v131,0,211,-78,211,-210v0,-129,-81,-212,-211,-212xm594,-1231v-108,0,-171,74,-171,183v0,107,65,182,171,182v106,0,172,-75,172,-182v0,-109,-65,-183,-172,-183"},"9":{"d":"1092,-902v0,438,-220,707,-479,902r-387,0v244,-162,461,-330,542,-642r-5,0v-62,75,-149,130,-287,130v-197,0,-309,-114,-364,-266v-41,-113,-40,-278,2,-390v67,-181,222,-290,468,-290v254,0,406,129,474,322v24,69,36,147,36,234xm576,-1217v-128,0,-182,102,-185,233v-3,136,59,238,185,238v133,0,193,-97,193,-233v0,-134,-64,-238,-193,-238"},":":{"d":"463,-872v0,100,-84,165,-189,165v-98,0,-182,-70,-182,-165v0,-98,87,-164,187,-164v102,0,184,67,184,164xm463,-141v0,100,-84,166,-189,166v-98,0,-182,-71,-182,-166v0,-98,87,-164,187,-164v102,0,184,67,184,164","w":555},";":{"d":"467,-872v0,100,-81,165,-186,165v-99,0,-183,-71,-183,-165v0,-99,84,-164,185,-164v102,0,184,67,184,164xm432,-252r-147,506r-246,0r102,-506r291,0","w":555},"<":{"d":"1192,-63r-934,-426r0,-162r934,-447r0,238r-666,285r0,6r666,268r0,238","w":1448},"=":{"d":"1212,-700r-974,0r0,-205r974,0r0,205xm1212,-266r-974,0r0,-203r974,0r0,203","w":1448},">":{"d":"1192,-502r-934,426r0,-237r668,-267r0,-4r-668,-286r0,-238r934,444r0,162","w":1448},"?":{"d":"538,-620v-38,46,-48,150,-12,205r-263,0v-32,-80,-22,-208,15,-275v64,-116,208,-166,253,-296v39,-114,-30,-214,-148,-210v-131,4,-240,58,-321,131r0,-301v94,-57,214,-92,356,-92v258,0,437,103,439,362v2,262,-199,331,-319,476xm592,-143v0,98,-82,166,-183,166v-100,0,-186,-73,-186,-166v0,-95,86,-164,186,-164v99,0,183,68,183,164","w":897},"@":{"d":"1350,-180v-126,1,-222,-76,-228,-191r-6,0v-47,127,-131,191,-254,191v-198,-2,-307,-162,-307,-377v0,-271,158,-516,399,-516v99,0,162,39,187,117r4,0r10,-99r225,0v-30,284,-45,470,-45,557v0,93,25,140,76,140v53,0,97,-35,132,-106v35,-71,52,-163,52,-277v1,-321,-227,-533,-565,-533v-374,0,-665,314,-665,686v0,374,248,598,630,598v150,0,287,-29,412,-86r0,191v-114,49,-261,73,-440,73v-478,0,-832,-304,-832,-780v0,-485,385,-860,883,-860v452,0,805,267,805,700v0,314,-186,569,-473,572xm1126,-727v0,-97,-48,-172,-137,-172v-134,0,-203,189,-203,340v0,110,44,203,138,203v63,0,112,-34,148,-101v36,-67,54,-157,54,-270","w":1954},"A":{"d":"1425,0r-352,0r-102,-319r-510,0r-101,319r-350,0r522,-1434r383,0xm897,-567r-154,-482v-11,-36,-19,-79,-24,-129r-8,0v-3,42,-12,84,-25,125r-156,486r367,0","w":1440},"B":{"d":"1241,-428v0,279,-227,428,-526,428r-551,0r0,-1434r522,0v160,0,283,29,369,88v86,59,129,141,129,248v-1,169,-135,286,-279,324r0,4v186,19,336,149,336,342xm629,-856v125,2,215,-63,215,-182v0,-105,-79,-158,-236,-158r-121,0r0,340r142,0xm901,-432v0,-125,-101,-184,-237,-184r-177,0r0,378r175,0v138,2,239,-66,239,-194","w":1313},"C":{"d":"414,-709v0,269,167,455,432,455v126,0,241,-31,346,-92r0,295v-105,51,-241,76,-410,76v-433,0,-708,-283,-708,-711v0,-449,317,-772,764,-772v140,0,258,18,354,53r0,311v-96,-57,-205,-86,-328,-86v-272,0,-450,192,-450,471","w":1278},"D":{"d":"1436,-735v0,446,-313,735,-764,735r-508,0r0,-1434r508,0v509,0,764,233,764,699xm1096,-731v0,-275,-172,-443,-451,-440r-158,0r0,909r160,0v281,3,449,-186,449,-469","w":1510},"E":{"d":"1024,0r-860,0r0,-1434r827,0r0,263r-504,0r0,319r469,0r0,262r-469,0r0,328r537,0r0,262","w":1090},"F":{"d":"993,-1171r-506,0r0,352r465,0r0,262r-465,0r0,557r-323,0r0,-1434r829,0r0,263","w":1065},"G":{"d":"414,-709v0,280,153,463,420,463v77,0,139,-11,184,-33r0,-280r-287,0r0,-258r610,0r0,721v-140,81,-314,121,-522,121v-452,0,-745,-271,-745,-719v0,-453,333,-764,798,-764v152,0,286,21,402,63r0,303v-111,-64,-246,-96,-406,-96v-271,0,-454,200,-454,479","w":1456},"H":{"d":"1405,0r-324,0r0,-584r-594,0r0,584r-323,0r0,-1434r323,0r0,572r594,0r0,-572r324,0r0,1434","w":1569},"I":{"d":"487,-1434r0,1434r-323,0r0,-1434r323,0","w":649},"J":{"d":"762,-569v2,366,-168,593,-520,594v-75,0,-145,-13,-209,-39r0,-303v55,42,117,63,186,63v147,0,221,-109,221,-328r0,-852r322,0r0,865","w":912},"K":{"d":"1356,0r-408,0r-418,-623v-8,-12,-21,-38,-38,-79r-5,0r0,702r-323,0r0,-1434r323,0r0,678r5,0v8,-19,18,-47,40,-80r396,-598r385,0r-500,684","w":1329},"L":{"d":"1018,0r-854,0r0,-1434r323,0r0,1172r531,0r0,262","w":1047},"M":{"d":"1798,0r-319,0r0,-858v0,-93,4,-195,12,-307r-8,0v-17,88,-32,151,-45,190r-336,975r-264,0r-342,-965v-9,-26,-24,-93,-45,-200r-9,0v25,400,9,758,13,1165r-291,0r0,-1434r473,0r293,850v23,68,40,136,51,205r6,0v18,-79,37,-148,57,-207r293,-848r461,0r0,1434","w":1960},"N":{"d":"1454,0r-326,0r-591,-901v-35,-53,-59,-92,-72,-119r-4,0v18,297,4,699,8,1020r-305,0r0,-1434r348,0r569,873v26,39,50,78,72,117r4,0v-5,-33,-8,-99,-8,-197r0,-793r305,0r0,1434","w":1618},"O":{"d":"1479,-727v0,434,-285,752,-709,752v-410,0,-696,-307,-696,-723v0,-440,285,-760,719,-760v413,0,686,309,686,731xm1139,-709v0,-268,-113,-469,-355,-471v-240,-2,-370,209,-370,465v0,257,127,461,362,461v240,0,363,-195,363,-455","w":1553},"P":{"d":"1212,-977v1,302,-250,490,-571,483r-154,0r0,494r-323,0r0,-1434r506,0v361,0,542,152,542,457xm487,-1186r0,447r127,0v172,0,258,-75,258,-226v0,-147,-86,-221,-258,-221r-127,0","w":1258},"Q":{"d":"1479,-727v0,238,-80,436,-223,571r363,349r-452,0r-190,-193v-507,125,-903,-213,-903,-698v0,-438,284,-760,719,-760v413,0,686,308,686,731xm1139,-709v0,-266,-111,-469,-355,-471v-239,-2,-370,208,-370,465v0,257,127,461,362,461v240,0,363,-196,363,-455","w":1553},"R":{"d":"1198,-1044v0,228,-141,343,-322,399r0,4v102,38,165,131,220,217r271,424r-371,0r-223,-369v-42,-67,-77,-131,-143,-167v-37,-20,-91,-11,-143,-13r0,549r-323,0r0,-1434r512,0v348,0,522,130,522,390xm627,-793v131,4,232,-88,231,-211v0,-125,-75,-188,-225,-188r-146,0r0,399r140,0","w":1337},"S":{"d":"907,-70v-188,127,-605,120,-809,15r0,-320v100,85,231,146,395,146v127,0,243,-29,243,-145v0,-112,-103,-147,-188,-190v-37,-19,-79,-35,-123,-53v-190,-82,-333,-183,-333,-415v0,-312,249,-426,563,-426v145,0,255,16,358,55r0,299v-86,-59,-201,-100,-340,-100v-123,0,-241,31,-241,145v0,98,85,129,158,169v33,18,71,32,113,50v191,85,370,171,373,437v2,164,-70,266,-169,333","w":1148},"T":{"d":"1171,-1171r-409,0r0,1171r-324,0r0,-1171r-407,0r0,-263r1140,0r0,263","w":1200},"U":{"d":"1333,-621v0,431,-201,646,-602,646v-389,0,-584,-210,-584,-631r0,-828r324,0r0,832v0,232,91,348,272,348v178,0,267,-112,267,-336r0,-844r323,0r0,813","w":1481},"V":{"d":"1358,-1434r-494,1434r-366,0r-488,-1434r348,0r299,998v16,54,26,102,29,143r6,0v5,-45,15,-94,31,-147r297,-994r338,0","w":1366},"W":{"d":"2040,-1434r-379,1434r-358,0r-238,-920v-13,-48,-20,-102,-23,-161r-4,0v-6,65,-15,119,-26,161r-244,920r-373,0r-377,-1434r353,0r202,955v9,41,15,95,19,164r6,0v3,-51,12,-107,29,-168r260,-951r346,0r235,963v9,35,16,87,23,154r4,0v3,-53,10,-106,21,-160r198,-957r326,0","w":2058},"X":{"d":"1335,0r-383,0r-247,-467v-9,-17,-19,-49,-29,-96r-4,0v-5,22,-10,58,-33,100r-248,463r-385,0r457,-717r-418,-717r393,0r205,430v16,34,30,74,43,121r4,0v8,-28,17,-73,45,-125r228,-426r360,0r-430,711","w":1342},"Y":{"d":"1245,-1434r-467,924r0,510r-323,0r0,-504r-455,-930r369,0r231,535v4,10,15,49,33,117r4,0v9,-48,19,-86,31,-113r235,-539r342,0","w":1243},"Z":{"d":"1196,0r-1155,0r0,-186r735,-985r-682,0r0,-263r1100,0r0,181r-719,991r721,0r0,262","w":1243},"[":{"d":"686,326r-469,0r0,-1760r469,0r0,201r-209,0r0,1358r209,0r0,201","w":756},"\\":{"d":"961,238r-279,0r-682,-1672r281,0","w":893},"]":{"d":"541,326r-471,0r0,-201r211,0r0,-1358r-211,0r0,-201r471,0r0,1760","w":756},"^":{"d":"1249,-610r-243,0r-287,-586r-4,0r-271,586r-241,0r430,-848r162,0","w":1448},"_":{"d":"850,297r-850,0r0,-119r850,0r0,119","w":850},"`":{"d":"596,-1186r-227,0r-314,-323r281,0","w":643},"a":{"d":"158,-963v80,-43,267,-86,389,-86v292,0,438,146,438,437r0,612r-299,0r0,-147r-4,0v-69,115,-170,172,-305,172v-193,0,-320,-121,-320,-310v0,-199,118,-313,353,-344r278,-37v0,-112,-61,-168,-182,-168v-122,0,-238,36,-348,109r0,-238xm487,-199v119,0,203,-97,201,-217r0,-69r-186,24v-103,13,-154,60,-154,139v0,75,59,123,139,123","w":1102},"b":{"d":"1198,-541v0,315,-164,566,-459,566v-126,0,-221,-48,-286,-144r-4,0r0,119r-316,0r0,-1516r316,0r0,646r4,0v78,-119,189,-179,333,-179v279,0,412,215,412,508xm664,-807v-132,-1,-224,116,-220,256r0,105v-3,125,82,231,203,229v161,-3,227,-140,227,-320v0,-156,-65,-269,-210,-270","w":1270},"c":{"d":"393,-508v0,178,108,292,285,291v79,0,156,-25,231,-74r0,254v-71,41,-174,62,-309,62v-305,0,-528,-211,-528,-512v0,-345,231,-562,575,-562v121,0,208,16,262,48r0,268v-66,-49,-140,-74,-221,-74v-181,-1,-295,116,-295,299","w":983},"d":{"d":"72,-489v0,-313,173,-560,467,-560v132,0,224,47,276,142r4,0r0,-609r316,0r0,1516r-316,0r0,-141r-4,0v-72,111,-178,166,-317,166v-274,0,-426,-217,-426,-514xm608,-217v139,0,221,-129,217,-281r0,-77v2,-127,-84,-234,-209,-232v-155,2,-223,138,-223,309v0,163,67,281,215,281","w":1268},"e":{"d":"584,-1049v299,0,471,195,469,494r0,133r-668,0v11,149,104,223,281,223v113,0,212,-27,297,-80r0,228v-95,51,-218,76,-369,76v-327,0,-522,-195,-522,-521v0,-319,214,-553,512,-553xm760,-616v0,-147,-59,-220,-178,-220v-111,1,-188,111,-199,220r377,0","w":1108},"f":{"d":"217,-1151v-1,-239,175,-389,424,-389v64,0,117,7,160,20r0,246v-41,-16,-80,-24,-117,-24v-101,0,-152,55,-152,165r0,109r234,0r0,233r-234,0r0,791r-315,0r0,-791r-172,0r0,-233r172,0r0,-127","w":785},"g":{"d":"72,-483v0,-319,169,-565,465,-566v125,0,218,48,280,144r4,0r0,-119r316,0r0,907v0,390,-240,598,-643,598v-138,0,-247,-20,-328,-59r0,-266v105,61,212,92,319,92v205,0,336,-116,336,-314r0,-81r-4,0v-72,115,-178,172,-319,172v-273,1,-426,-220,-426,-508xm606,-217v140,0,222,-125,219,-275r0,-81v2,-124,-84,-237,-207,-234v-157,3,-225,137,-225,313v0,155,70,277,213,277","w":1268},"h":{"d":"637,-807v-116,0,-188,102,-188,223r0,584r-316,0r0,-1516r316,0r0,644r4,0v77,-118,182,-177,315,-177v232,0,348,140,348,420r0,629r-315,0r0,-582v0,-150,-55,-225,-164,-225","w":1233},"i":{"d":"475,-1350v0,98,-80,164,-182,164v-100,0,-182,-69,-182,-164v0,-97,82,-161,182,-161v102,0,182,64,182,161xm449,0r-316,0r0,-1024r316,0r0,1024","w":582},"j":{"d":"475,-1350v0,98,-80,164,-182,164v-100,0,-182,-69,-182,-164v0,-97,82,-161,182,-161v102,0,182,64,182,161xm449,-18v2,290,-146,501,-431,499v-46,0,-96,-10,-151,-30r0,-248v149,86,266,22,266,-197r0,-1030r316,0r0,1006","w":582},"k":{"d":"1159,0r-379,0r-327,-508r-4,0r0,508r-316,0r0,-1516r316,0r0,965r4,0r305,-473r375,0r-367,481","w":1145},"l":{"d":"449,0r-316,0r0,-1516r316,0r0,1516","w":582},"m":{"d":"453,-864v58,-100,181,-185,331,-185v145,0,244,64,297,191v78,-127,193,-191,344,-191v223,0,334,137,334,412r0,637r-315,0r0,-584v0,-149,-55,-223,-164,-223v-111,0,-176,114,-176,234r0,573r-316,0r0,-590v0,-145,-54,-217,-161,-217v-118,0,-178,107,-178,238r0,569r-316,0r0,-1024r316,0r0,160r4,0","w":1876},"n":{"d":"637,-807v-113,0,-188,103,-188,223r0,584r-316,0r0,-1024r316,0r0,162r4,0v75,-125,185,-187,329,-187v227,0,340,141,340,422r0,627r-315,0r0,-569v0,-159,-57,-238,-170,-238","w":1239},"o":{"d":"1180,-526v0,339,-218,551,-559,551v-334,0,-549,-204,-549,-533v0,-338,224,-541,563,-541v328,0,545,204,545,523xm629,-807v-161,0,-236,122,-236,295v0,197,79,295,238,295v151,0,227,-101,227,-303v0,-191,-76,-287,-229,-287","w":1252},"p":{"d":"1198,-541v0,315,-167,566,-463,566v-123,0,-217,-48,-282,-144r-4,0r0,590r-316,0r0,-1495r316,0r0,154r4,0v78,-119,188,-179,329,-179v279,-1,416,216,416,508xm664,-807v-137,0,-224,121,-220,268r0,82v-3,132,77,242,203,240v161,-2,227,-140,227,-320v0,-180,-70,-270,-210,-270","w":1270},"q":{"d":"72,-487v0,-314,173,-562,465,-562v125,0,218,48,278,144r4,0r0,-119r316,0r0,1495r-316,0r0,-612r-4,0v-71,111,-176,166,-315,166v-275,-2,-428,-214,-428,-512xm604,-217v141,2,224,-123,221,-272r0,-82v3,-126,-84,-238,-207,-236v-155,3,-225,138,-225,311v0,156,72,277,211,279","w":1268},"r":{"d":"668,-770v-147,1,-219,123,-219,281r0,489r-316,0r0,-1024r316,0r0,190r4,0v50,-139,140,-208,270,-208v33,0,59,4,78,12r0,291v-38,-21,-82,-31,-133,-31","w":815},"s":{"d":"527,-834v-75,0,-146,17,-152,86v12,94,123,102,200,132v143,56,277,111,277,303v0,360,-482,388,-786,286r0,-256v86,52,184,93,302,93v92,0,176,-17,181,-93v-17,-102,-150,-103,-233,-139v-134,-58,-250,-115,-250,-301v0,-241,204,-326,448,-326v100,0,194,17,276,41r0,244v-70,-42,-162,-70,-263,-70","w":901},"t":{"d":"752,-12v-47,25,-117,37,-211,37v-223,0,-334,-116,-334,-347r0,-469r-166,0r0,-233r166,0r0,-221r315,-90r0,311r230,0r0,233r-230,0r0,414v-9,157,119,194,230,131r0,234","w":797},"u":{"d":"604,-217v119,0,187,-95,187,-221r0,-586r315,0r0,1024r-315,0r0,-156r-5,0v-78,121,-182,181,-313,181v-237,0,-356,-144,-356,-431r0,-618r315,0r0,590v0,145,57,217,172,217","w":1239},"v":{"d":"1108,-1024r-381,1024r-360,0r-363,-1024r338,0r178,631v20,71,32,132,35,182r4,0v5,-47,17,-106,37,-176r182,-637r330,0","w":1110},"w":{"d":"1616,-1024r-295,1024r-332,0r-151,-600v-10,-40,-16,-84,-17,-131r-6,0v-5,52,-11,94,-20,127r-162,604r-328,0r-289,-1024r322,0r141,668v7,31,12,69,15,114r6,0v3,-47,9,-86,18,-118r176,-664r301,0r158,668v4,17,9,55,14,116r7,0v37,-273,102,-521,149,-784r293,0","w":1633},"x":{"d":"1122,-1024r-338,496r336,528r-364,0r-148,-276v-12,-22,-26,-53,-43,-93r-4,0v-52,127,-129,248,-190,369r-363,0r346,-510r-325,-514r366,0r146,287v19,38,33,70,41,96r4,0v52,-134,130,-257,192,-383r344,0","w":1131},"y":{"d":"1108,-1024r-416,1106v-128,333,-316,458,-641,373r0,-252v111,65,255,43,307,-78r54,-127r-416,-1022r350,0r191,623v12,39,21,84,28,137r4,0v6,-39,17,-84,33,-135r193,-625r313,0","w":1102},"z":{"d":"944,0r-919,0r0,-131r514,-660r-463,0r0,-233r864,0r0,156r-487,635r491,0r0,233","w":981},"{":{"d":"514,-41v1,126,40,178,160,180r0,187v-286,-4,-414,-82,-416,-365r0,-240v0,-123,-51,-184,-152,-184r0,-184v101,0,152,-64,152,-191r0,-223v2,-284,127,-370,416,-373r0,187v-107,0,-160,58,-160,174r0,213v0,160,-51,261,-154,303r0,4v103,41,154,144,154,307r0,205","w":756},"|":{"d":"461,481r-252,0r0,-2048r252,0r0,2048","w":668},"}":{"d":"84,-1434v285,3,411,89,414,369r0,229v0,126,51,189,153,189r0,184v-102,0,-153,62,-153,187r0,231v-2,289,-124,366,-414,371r0,-187v119,-2,159,-54,160,-178r0,-213v0,-159,51,-259,153,-299r0,-4v-102,-42,-153,-146,-153,-313r0,-205v0,-116,-53,-174,-160,-174r0,-187","w":756},"~":{"d":"930,-610v77,-1,121,-77,121,-162r204,0v-5,206,-113,363,-313,364v-71,0,-157,-29,-258,-88v-73,-42,-125,-63,-156,-63v-82,0,-125,53,-129,160r-204,0v5,-209,113,-365,317,-365v75,0,154,25,238,76v87,52,147,78,180,78","w":1448},"\u00a0":{"w":565}}});
